21
-22
-22
-4
7
-14
-65
-12
39
24
-71
-114
57
95
-15
-68
-64
77
86
3
-12
34
2
39
5
49
-9
6
9
16
4
-55
-1
17
15
-65
-111
65
85
6
-75
-28
97
64
-12
11
1
21
18
14
4
-57
-41
-16
11
-71
-54
-26
48
39
-84
-122
41
119
-10
-100
-75
69
65
1
-47
11
15
11
17
-29
-15
-26
1
15
-50
-35
-26
-25
-41
-85
-39
-73
-50
-33
-51
-49
-33
-34
-30
-58
-46
-25
1
-3
-19
5
-20
27
-5
-43
-9
0
-9
-6
-57
-46
-1
41
27
-40
-3
6
34
39
-23
-23
29
4
20
42
15
72
41
44
-6
37
53
59
67
14
5
49
102
92
-12
47
77
90
66
15
43
56
74
70
-25
-51
-71
-37
58
-60
-27
25
-21
-29
-19
-1
-6
-20
-72
56
14
-10
-27
-28
34
-26
-35
-5
-35
-12
-7
-19
20
70
16
25
72
-4
24
12
60
97
41
20
92
38
7
34
12
105
37
14
28
-4
-73
-51
-68
8
24
-28
-5
24
-54
-35
0
-29
6
-37
-55
18
10
-1
-21
-18
43
4
-57
1
-70
-2
25
-46
-42
-12
68
127
86
77
49
-20
51
87
42
60
-101
-61
-100
-80
-55
-36
-64
-103
-69
-59
-19
-8
-27
-54
-12
1
78
31
51
70
20
47
85
97
35
-46
-37
-66
-27
-33
-31
-33
-30
-19
7
-15
-69
-67
-55
-24
8
11
20
-1
31
26
34
67
82
48
-15
-14
-39
-42
-13
48
26
-18
-17
24
-14
-35
-31
-58
-61
-58
-76
-76
-78
-44
-49
-48
-45
-47
5
12
49
56
93
73
72
71
79
78
83
34
10
3
-48
-2
-8
-26
-67
-38
-44
-47
-53
-37
12
-33
-9
1
49
25
8
4
11
42
37
20
100
27
8
21
-7
43
14
-42
-4
-11
-30
-37
-21
24
9
-27
38
58
32
26
4
33
22
-18
-15
63
74
95
94
62
86
35
66
29
46
38
9
-20
-12
-7
32
-12
-72
-18
2
-26
-59
-67
-73
-75
-6
-65
-77
-73
-63
4
-53
-62
-88
-64
60
-51
-94
-84
-29
53
-39
-81
-44
-8
83
-11
-26
-14
4
-9
-6
-44
-7
-28
40
1
-29
-11
25
42
-18
-44
4
47
57
-1
7
-10
30
122
9
36
58
78
