16
3
33
-22
-97
31
-13
-12
-78
1
-35
-65
-45
23
71
-33
-40
20
17
47
-25
-17
23
-2
35
11
-2
-16
18
-29
24
15
-19
-33
-37
5
8
7
-22
-14
-30
-7
-29
-29
17
-21
11
29
18
74
9
25
12
19
44
14
20
-6
-11
13
2
-7
-4
-5
1
-31
-16
1
-10
12
6
-22
-29
28
9
-26
-25
-1
26
22
-11
-15
25
16
0
8
-13
28
-11
-34
13
18
-1
-31
-49
21
-3
23
-43
-67
19
6
7
-7
-30
12
-14
-25
-57
16
-9
-56
-2
17
-16
-62
-11
-3
1
-22
-54
25
20
9
-28
-15
8
21
36
72
-42
5
48
65
81
-19
34
37
49
29
18
44
27
22
-17
32
31
-13
-21
-29
24
8
25
8
17
39
26
36
23
33
50
27
46
46
0
50
74
63
6
14
78
96
82
56
56
-26
-49
-10
-9
5
-38
-9
1
-7
17
5
-24
-17
10
45
-18
-3
-22
3
27
-17
-7
22
22
43
-53
-43
-20
-42
-54
-13
-24
-45
-41
-41
-15
-35
-40
-59
-42
-30
-52
-32
-63
-33
-22
-50
-46
-12
-7
5
19
3
-13
-60
9
-33
-32
-31
-62
-2
7
-49
-30
-52
45
9
-16
-22
-21
18
28
27
9
-14
-18
-9
-35
-23
-20
-30
-18
-39
-16
-42
-40
-35
-32
-34
-40
-29
-26
-13
-42
-22
-14
-34
-61
-27
-38
3
1
-8
-14
-17
-30
-14
-38
-19
-32
-16
-55
-14
-26
-29
-32
-19
-35
-26
-15
-20
-18
-48
-15
-28
-23
87
112
36
-12
30
113
15
-8
17
68
40
-52
23
27
32
-48
-18
23
-27
-26
-51
-14
-26
1
-53
-52
-26
-17
-16
-36
-27
-28
-17
-1
29
18
38
14
-13
50
4
30
24
8
49
32
45
23
-2
19
-34
13
9
4
-59
-28
3
-9
-22
-41
7
-26
-46
-11
-45
-28
-20
-2
11
-29
-58
-14
-37
-32
56
3
-1
30
43
25
10
-16
6
5
-26
4
-16
2
2
-55
-21
-3
-9
-2
-20
-13
-7
-14
5
-9
38
68
34
-3
34
51
-2
-76
-43
90
41
-35
-57
-45
33
8
26
5
-43
-1
21
-6
15
-18
38
11
-15
-5
-25
46
-72
-36
11
-14
-6
-35
-13
-2
7
-54
-38
12
-30
-10
-40
-4
-11
-2
-12
12
20
-8
9
-1
-26
39
-46
74
-32
-37
71
-27
55
1
11
38
-53
54
-9
55
30
41
34
35
-75
-68
-45
-43
-69
-47
-55
-48
-74
-60
-36
-73
-47
-35
-96
-38
-19
-62
-78
-85
-66
-32
-62
-87
-104
17
45
37
28
31
-17
7
47
-50
-2
7
15
29
19
-5
-15
-22
14
2
14
-29
13
-3
64
47
-33
-12
14
14
-3
-8
6
2
-9
34
38
25
5
21
50
23
4
31
-18
23
18
14
-26
-31
20
0
2
-50
5
54
10
-20
-56
5
-3
-8
1
3
-38
-15
40
-11
-36
-31
-30
24
1
-29
11
-31
-4
14
61
-12
-36
-18
-65
18
0
-48
5
-50
12
3
-27
-7
-48
-4
13
-27
-35
-55
-28
-36
-37
1
14
2
-8
-57
-7
40
62
6
-21
30
6
-12
-14
122
31
-62
-49
99
92
-31
-41
6
-50
-95
1
4
35
36
-27
1
3
24
-10
2
23
-1
-43
-34
-1
24
-11
-39
-9
-47
7
6
3
-30
-47
31
-19
1
18
-12
18
17
20
37
-13
-22
55
5
-57
-9
14
-22
-61
5
36
-51
-79
-9
32
-10
24
6
-35
-2
18
-42
-24
20
33
-38
-36
1
59
7
-22
45
35
-33
-41
10
5
-19
-38
-18
-2
-56
-49
11
-16
-36
-9
-33
-19
-24
11
-5
-42
-80
7
67
-44
-23
78
107
-5
16
94
94
1
-45
21
-26
-33
-22
35
-15
-33
-21
6
44
-28
-8
5
32
-24
-14
-5
38
-11
-38
-15
21
-30
-40
30
-70
-45
-14
-10
17
-56
-42
-27
-29
3
-10
-27
-40
-56
-55
32
-24
-22
-40
-71
-7
28
23
-3
-19
3
9
67
78
58
-27
12
8
0
-15
18
23
-19
-36
-14
14
-36
-15
3
-22
16
4
-9
26
1
-39
-40
-67
-32
-50
-25
-7
12
18
-24
13
15
-2
-22
-17
-1
2
21
5
23
20
25
-9
-35
-14
74
15
35
39
54
41
9
7
3
56
19
31
27
40
62
39
49
44
22
12
22
15
19
7
29
26
6
1
6
35
43
48
51
25
43
16
41
1
1
-7
17
-10
8
32
32
-33
-52
-36
0
-7
-3
-8
-14
-24
-43
-76
-69
-37
-84
-52
-49
-41
-9
-6
-12
-9
0
8
13
6
-6
-18
-3
-25
6
-11
-37
-34
-26
-53
-36
-54
-40
-52
-49
-35
-36
-48
-47
-35
-20
-36
-3
-4
-21
-15
14
-4
14
-18
-33
-24
-14
-25
13
-13
-2
-20
-9
-27
-11
-30
-36
-11
-4
4
-3
-16
-2
42
8
-16
10
23
25
-50
-53
-34
-14
-44
-41
8
6
-42
-6
27
0
0
21
14
21
20
6
24
-13
2
10
5
-9
8
59
60
27
15
19
48
43
51
44
55
100
89
90
59
81
8
-25
-43
-10
23
-17
-32
-46
-54
-26
-18
-22
1
25
-11
-6
29
9
-2
5
-30
-19
-8
-14
14
-42
-10
-7
-31
-8
11
-9
-7
-15
-8
44
35
53
-6
-6
29
21
22
49
37
37
20
45
22
-6
19
-17
-28
-27
-44
-31
-54
-80
-61
-87
92
40
-47
3
7
29
-2
-21
-7
-17
-16
11
-34
-7
-7
-54
-43
-33
-35
-3
-81
-85
-65
-79
-53
10
16
-4
25
-12
-26
-26
0
4
-22
-57
-13
-3
-14
-23
-19
-43
-16
-26
15
-57
-25
12
-6
-24
29
-7
33
8
5
50
29
18
2
5
47
-3
-24
-22
-11
5
15
-1
-24
-16
-22
-3
12
-4
-30
0
24
40
50
18
-6
39
21
-8
-12
10
39
4
1
-5
16
7
-17
-13
17
-78
-53
-27
-41
-30
28
27
41
42
29
-10
-11
6
25
31
14
78
42
62
57
15
47
35
39
65
30
44
10
24
32
71
24
7
20
30
2
-36
6
-18
-20
1
17
-2
-1
-36
17
25
-13
-4
11
-50
-72
-32
-27
-56
32
1
26
17
26
35
-41
-30
0
-14
-10
0
-44
29
12
21
43
-37
23
-7
2
3
-67
-12
-3
8
-12
2
10
-8
-16
-24
8
8
-19
-12
-7
-4
8
-29
-33
-18
-32
-9
-26
-12
11
-12
-2
-13
-48
-60
-29
-32
24
-31
-47
-36
-42
-7
-4
-6
-24
-35
-26
23
-31
-36
-36
-56
28
-12
-13
-33
-26
28
43
48
48
49
-3
-7
18
17
17
-25
19
-39
-14
1
-23
-1
-18
-15
-5
-10
20
-12
15
-16
-38
28
14
18
33
-59
-39
-53
5
15
-52
-17
-22
-22
-16
2
-26
-34
-9
-21
-19
17
23
31
-11
7
-5
-28
-33
-3
85
34
0
-3
22
100
32
59
7
-14
66
-12
23
34
-5
47
-26
22
21
-4
-45
-61
-27
-6
-4
51
14
-21
-11
4
42
37
27
8
-1
-1
-4
18
21
18
-104
-82
-68
-73
-22
23
-15
10
18
17
22
29
4
10
-19
-32
24
-3
13
-9
-41
-43
-1
-12
-16
-34
-38
-58
-26
4
-31
4
-21
-20
-44
-26
-33
32
4
-9
-6
-56
1
-19
-15
79
-12
-36
-23
0
91
47
31
-32
-15
25
0
-27
-35
-20
81
22
-42
-18
-12
36
44
19
-35
-32
-30
19
97
68
-13
13
51
79
67
38
-2
-15
13
-29
-42
-10
-12
-15
-15
-57
-51
-26
-13
-33
13
-7
-24
-38
-14
11
13
32
7
43
13
-41
-20
-44
-67
-51
7
-4
-2
-13
5
58
2
-2
17
30
42
36
35
0
11
31
38
15
32
25
22
14
-35
-47
25
-41
0
36
-10
-20
-18
-53
29
59
7
-6
-16
-42
35
24
-2
-34
-96
-36
24
-49
-36
-16
9
-9
-21
-49
-16
4
38
-13
-70
-67
-15
36
-2
-39
-52
-33
-17
33
-24
-26
-26
-24
7
-42
-24
48
46
12
-26
-42
-41
16
43
75
-2
-73
-22
-41
47
79
-3
-65
-45
-42
31
70
-11
-30
39
-14
-6
14
-81
37
96
23
-17
-91
-32
52
57
11
-46
-70
-63
61
46
-65
-25
-57
-29
37
4
-35
-19
11
-27
60
-29
-64
-40
-28
86
58
-61
-72
-36
1
42
10
-37
-60
-37
31
40
3
-21
77
-1
-1
32
21
63
46
-40
-30
10
-16
46
59
-36
-53
-42
-2
79
33
-49
-37
-64
19
51
11
-35
19
23
-2
14
-22
-50
-50
-13
-15
-37
-54
-66
-49
-1
-1
-60
-90
-78
-45
4
-32
-46
-58
-70
78
51
-6
-9
-34
41
13
-7
-8
-34
58
21
-12
-9
-10
113
27
-10
6
5
127
52
30
27
33
-11
1
-1
18
14
0
25
-5
-2
2
-28
21
15
2
-9
-66
-3
24
28
-6
-60
-22
18
37
39
-1
5
8
21
18
-20
6
17
3
1
20
-27
-47
-32
8
26
-30
-33
-35
-38
-11
-6
-30
1
-20
7
-3
-8
4
17
22
39
-22
-25
-37
5
15
5
-25
-43
-13
-15
1
-18
-29
-14
-3
-12
-4
-20
29
25
-2
-23
-25
17
16
-2
-28
-21
15
61
52
8
-46
44
42
37
35
6
10
56
32
29
34
-4
17
-21
-15
-3
25
-8
22
-22
-17
17
7
-18
14
13
-8
16
8
-3
-8
4
-8
17
8
-1
8
-22
-26
-6
14
4
24
-25
7
-25
10
-8
0
-10
-14
17
0
-4
-21
-13
17
-1
16
-9
-22
19
34
-6
16
31
-7
3
7
21
-17
-3
26
20
10
3
-1
-13
34
-3
22
30
5
-14
8
-15
-6
4
-19
1
-8
-19
17
-20
-8
-18
9
9
-2
-10
-9
-20
-14
-24
-21
7
8
-24
-14
-21
9
17
21
-3
16
-25
11
7
-18
-24
-1
16
-1
5
-27
-11
6
-11
0
-21
-22
0
5
-12
-16
1
-25
-1
14
-24
-29
-5
-19
-2
-16
-10
-17
-9
19
-17
-29
-19
7
-18
-17
-15
14
-15
-26
-21
13
31
-12
-24
-17
23
11
-23
-44
-1
17
9
-1
-39
-59
-14
2
-9
-7
-6
-39
25
7
-2
4
-16
-19
3
3
-4
55
-28
-49
-30
6
2
-34
-43
-2
-3
-10
-5
29
25
31
12
27
16
36
23
13
-1
-40
-52
-53
-31
23
0
-37
-39
-27
21
-17
3
13
-6
6
11
46
20
0
-10
11
-9
4
-14
7
-17
-11
-21
-2
0
-46
-34
1
-16
-39
2
-28
-24
-7
-11
30
40
4
21
14
-28
11
10
24
-69
-41
-49
-76
-72
-47
-44
-32
-73
-64
48
39
76
58
35
49
89
76
48
79
7
-33
-37
5
2
-15
-30
-21
-21
-22
21
8
-22
-45
-14
38
11
27
-16
24
29
-12
-8
-17
26
43
16
-6
-17
-11
-62
-31
-38
-18
11
-35
-68
12
54
5
-51
-54
39
20
21
-55
-13
42
13
-10
-49
13
55
20
1
6
23
-27
-24
4
41
23
-8
-37
16
57
23
-24
-13
-3
44
-5
14
-23
-13
21
31
-17
0
-6
-13
-8
-28
-7
-30
8
1
5
-14
-39
20
-10
-2
-21
-30
11
-10
5
-15
-29
36
-13
7
-12
-25
-47
-47
-68
-39
-44
-31
-57
-54
-55
-41
-48
-27
-52
-47
-5
-40
-35
-52
-22
-18
-50
-25
-22
-7
-30
-26
-32
11
16
53
0
3
-9
52
53
12
28
36
44
23
5
34
54
30
-19
44
39
41
20
-15
1
16
5
-7
-41
-8
26
-24
-41
-24
8
19
4
-12
-46
20
-10
-32
-23
-29
18
-3
-36
-37
-31
1
21
10
-52
-31
-22
15
42
-92
-36
-36
44
65
-86
-1
-75
71
56
-94
-24
-63
107
81
-70
-26
-24
12
35
55
80
-39
-1
18
3
67
-57
2
59
-9
46
-72
-35
-3
-15
23
-63
-12
21
-28
-29
14
-41
-6
28
4
21
-64
-42
47
11
8
-24
-56
12
-15
28
-11
-35
-18
-3
52
-34
-42
-13
39
-16
34
7
33
34
-22
-1
-18
-2
22
-51
-37
-24
-8
5
-65
-33
-14
15
-5
-40
-37
-2
-25
-15
22
13
67
59
20
-51
-22
33
51
27
-72
-71
-19
-19
17
-80
-67
-38
-43
-30
-58
-45
19
53
19
29
-6
-27
6
-16
67
8
-61
21
8
95
49
-84
2
26
75
26
-51
-8
30
38
14
-49
3
9
