45
-49
51
30
44
-27
8
39
10
70
32
7
-23
-34
22
-43
-7
-57
5
5
29
-31
35
-37
-16
-2
-80
30
18
42
-49
67
123
40
19
70
-8
14
22
-5
-39
-26
-62
-22
-73
-47
-17
-27
-33
5
10
89
-28
10
-113
9
-11
71
-11
16
35
-37
-21
-34
0
-19
-27
40
-17
-40
-40
-9
-38
-6
84
57
9
76
-52
-28
4
29
12
9
64
-20
-5
29
-39
29
-13
90
-15
-1
-48
7
0
-68
10
-63
-56
28
-36
-35
10
0
30
39
36
-22
-23
-66
31
-8
-6
-4
81
29
79
40
11
73
-25
-32
-10
-17
-7
-40
66
19
68
-42
-14
29
22
-59
-31
58
87
-14
-24
91
-1
-29
-14
23
48
-22
8
43
-22
-47
-104
54
-8
5
-2
3
-19
76
50
-13
36
32
-33
-34
56
11
-66
-16
-8
-72
7
1
-31
-36
2
-45
-40
20
37
101
-4
-32
27
-19
-8
47
21
77
-11
15
-6
-29
-16
-20
-33
-5
56
3
13
-10
-15
24
-25
-67
9
5
-35
15
11
17
29
-33
-14
37
12
19
-20
70
29
-22
-22
12
-39
-30
27
-48
-12
38
18
19
-3
63
-3
23
68
-20
-43
66
56
31
-13
-1
25
110
18
9
-41
13
-33
29
-53
37
-39
-12
75
6
43
-92
30
2
-7
12
-31
26
-5
59
-21
10
-58
-20
-15
-3
8
-25
2
32
17
25
8
-9
54
-11
-56
3
-70
-42
21
12
38
-2
23
8
57
5
31
41
-12
38
-3
0
41
9
22
36
20
5
-35
-56
-29
-7
3
-21
-9
22
-13
20
-27
-3
51
-4
-18
-10
-50
24
8
-4
-5
8
-26
44
40
-53
70
-47
-16
16
-50
-50
-66
-23
-76
-4
-16
31
-50
25
54
92
-7
-30
15
-2
15
25
20
-16
-22
16
-15
5
51
104
-4
23
27
-8
2
29
-24
69
-6
-127
40
-10
-53
25
64
16
-64
15
21
44
-16
8
-25
-37
-23
-69
6
25
30
-89
-33
38
-40
-10
-22
13
6
26
-24
4
-11
8
37
14
-42
6
22
19
4
-56
-51
-1
-33
80
-38
1
-47
17
-66
-46
101
15
7
-79
-27
27
4
34
-42
46
-20
84
-44
-5
-78
-11
-18
-1
-24
34
-18
12
85
30
15
-13
8
-49
-76
-13
-44
-79
-31
4
39
22
33
12
33
-42
37
49
-3
10
15
-11
-23
-5
40
-40
9
8
-1
-39
8
1
22
42
0
35
-18
-12
-22
32
52
18
65
1
32
-16
-19
-27
-9
-4
46
-28
17
35
56
-19
-71
39
-106
-36
-84
20
85
2
-10
-5
-45
-13
27
37
32
44
-17
31
79
-64
53
-22
-32
-24
10
-7
36
-9
-5
29
43
-29
-61
-73
-45
-18
8
-33
-73
1
44
65
-15
-36
81
52
73
21
-22
25
32
53
-11
-75
-8
39
-7
-49
35
-54
13
-1
15
-2
-25
90
1
-4
-43
-42
-13
-10
82
62
8
-45
-24
36
-79
-15
24
7
7
-41
-20
59
0
42
38
23
-39
10
15
14
-33
4
-46
-7
30
-2
-29
-4
-14
74
-31
-20
-50
-17
-3
2
25
71
18
-2
-29
-55
-77
44
-57
-57
29
0
63
31
-28
60
71
-31
-72
55
-44
54
-19
4
9
-39
1
-12
-44
-1
100
48
13
60
20
43
-28
-33
-9
-62
-5
74
43
8
11
-42
40
-40
-4
5
-23
-55
75
-31
45
39
-2
21
51
-97
42
-13
-4
30
-10
-3
8
58
81
32
20
-95
51
-56
74
6
-85
-1
-3
-30
57
16
13
61
-80
-71
-20
50
-17
43
40
-64
57
91
10
107
-40
28
-20
-75
-47
80
-73
-123
-45
-38
-30
12
3
-38
2
85
3
-10
6
18
5
-41
-57
39
-24
28
-25
-6
-9
-27
-52
16
-14
17
-121
-6
52
-53
8
25
-35
-13
-55
-80
-76
0
110
-1
82
56
-43
-12
21
79
20
22
-15
-12
-12
-115
1
-34
57
-50
-36
-61
4
31
12
30
-7
-9
-79
-77
12
-26
-10
-12
39
71
6
-4
-6
58
-70
46
4
-33
-62
-25
102
23
47
-56
25
-2
4
-11
10
78
11
24
-60
54
-8
61
12
-16
-27
31
-6
-21
24
-40
-18
19
25
-37
0
-23
17
50
3
-9
54
-21
2
9
32
20
